Language model created by QuickLM on Tue Mar  8 01:21:11 EST 2016
Copyright (c) 1996-2010 Carnegie Mellon University and Alexander I. Rudnicky

The model is in standard ARPA format, designed by Doug Paul while he was at MITRE.

The code that was used to produce this language model is available in Open Source.
Please visit http://www.speech.cs.cmu.edu/tools/ for more information

The (fixed) discount mass is 0.5. The backoffs are computed using the ratio method.
This model based on a corpus of 3 sentences and 6 words

\data\
ngram 1=6
ngram 2=7
ngram 3=5

\1-grams:
-0.8653 </s> -0.3010
-0.8653 <s> -0.2374
-1.3424 ALEXA -0.2374
-1.0414 HEY -0.2596
-1.3424 JARVIS -0.2374
-1.3424 OVER -0.2374

\2-grams:
-0.4771 <s> HEY 0.0000
-0.7782 <s> OVER 0.0000
-0.3010 ALEXA </s> -0.3010
-0.6021 HEY ALEXA 0.0000
-0.6021 HEY JARVIS 0.0000
-0.3010 JARVIS </s> -0.3010
-0.3010 OVER </s> -0.3010

\3-grams:
-0.6021 <s> HEY ALEXA
-0.6021 <s> HEY JARVIS
-0.3010 <s> OVER </s>
-0.3010 HEY ALEXA </s>
-0.3010 HEY JARVIS </s>

\end\
